<?xml version="1.0"?>
<opencv_storage>
<stage2>
  <maxWeakCount>5</maxWeakCount>
  <stageThreshold>-1.2336684465408325e+00</stageThreshold>
  <weakClassifiers>
    <_>
      <internalNodes>
        0 -1 104497 1.3989311456680298e-01</internalNodes>
      <leafValues>
        -8.6699509620666504e-01 1.7180617153644562e-01</leafValues></_>
    <_>
      <internalNodes>
        0 -1 139914 -9.1684937477111816e-02</internalNodes>
      <leafValues>
        6.5450322628021240e-01 -4.9858069419860840e-01</leafValues></_>
    <_>
      <internalNodes>
        0 -1 10262 5.2557123126462102e-05</internalNodes>
      <leafValues>
        -7.6984560489654541e-01 3.4128686785697937e-01</leafValues></_>
    <_>
      <internalNodes>
        0 -1 108485 -2.4519607424736023e-02</internalNodes>
      <leafValues>
        6.5777420997619629e-01 -4.1238734126091003e-01</leafValues></_>
    <_>
      <internalNodes>
        0 -1 413 1.0140695376321673e-03</internalNodes>
      <leafValues>
        2.7533909678459167e-01 -9.8633861541748047e-01</leafValues></_></weakClassifiers></stage2>
</opencv_storage>
